-1.63648
0.9658286
0.9188485
2.159046
0.1817725
-1.02171
0.6890027
-1.393275
-0.7849157
-0.1852262
0.2732091
-0.3876612
0.1327703
-0.4427388
0.3069994
-0.9474568
0.4657415
0.1671878
0.8675251
-0.2186848
-0.7229183
0.4793685
-0.9482716
0.514128
0.7606092
0.4443925
0.7670987
0.735369
0.04172489
0.6860301
0.6377846
-0.845973
-1.870848
-1.296552
0.4027359
0.1284602
0.5139054
0.3479808
0.7263207
1.340531
-0.3764506
-0.5601648
-0.5835813
-0.02284872
0.1864329
0.8503285
-0.1056584
0.103859
-0.1929079
0.07945053
-0.7178439
-0.1504195
0.7079338
0.01067148
-0.6816387
-0.3377095
-0.3156797
-0.6334999
-0.9731902
-0.19699
0.04278628
-1.035556
-1.654036
-1.132802
0.4324355
0.3422028
-0.3559113
1.34672
0.9038596
0.4104409
-1.454816
-0.3957374
-0.528786
0.7587501
-1.242459
0.3955184
0.9309278
0.3458038
0.4233857
-0.3181556
-1.59281
0.07860906
-0.5727984
0.3344346
-0.2436651
-1.11315
0.0282335
-0.4557487
-0.6194069
-1.548041
0.1978635
1.708998
1.693241
-0.1457195
-1.479996
-0.02169548
1.325569
-0.4726277
-1.023961
-1.052737
1.114368
-0.9421658
-0.3685206
-0.4591427
0.9784479
1.389892
-0.6676226
-0.2896783
1.295302
1.201075
0.6954309
-0.7181593
-0.5994043
0.5542243
0.2838958
0.8087242
-0.4322113
-0.3869064
-0.0269096
0.7798903
-0.9514501
1.47094
0.8848692
-0.1676483
-0.005395676
0.1308647
1.074379
-1.302373
-0.8694379
0.3744761
0.6490404
-1.299226
-1.616719
-0.9102077
0.93244
1.738479
-0.9970293
0.6830357
0.6963726
0.3870477
0.4944959
-1.754141
-1.105501
-1.91197
1.003454
1.096441
0.1986269
1.071315
1.333564
1.629709
1.635368
-1.1946
-0.4313571
-0.5753106
0.5426955
0.1272642
-1.271436
1.158593
-0.3030319
0.07660632
0.4790778
0.1016285
0.7984859
0.2712546
-0.7142022
-1.055814
0.05323637
-0.8812673
0.1024761
-0.3092
0.4639075
-0.3367956
0.02112108
-0.5192991
-0.5739477
-0.009686883
0.4237377
0.3226168
0.4030919
0.5276956
0.09915785
-0.5941089
0.4612643
0.3575372
0.811434
0.4434175
-0.4308939
0.6903762
0.1055065
-0.3566335
0.9184691
0.6770268
0.251489
-0.4680293
-1.281466
0.3960796
0.001866294
-0.03193183
-0.1286088
-0.3745689
0.4414602
-0.2106532
-0.09804014
0.4106033
-0.9184541
-0.6432689
0.5714207
1.001216
0.2103755
0.7512096
-0.05830551
0.5288476
-0.03539992
0.3540187
0.9083602
-0.1180362
0.4236317
0.247808
-0.7406793
-0.09232011
-0.6096159
0.356784
0.3122618
-0.9176711
-1.43577
0.5444647
-0.06717694
0.376945
-0.860691
-0.7387905
