1.599078
-1.391755
1.65995
-0.6709719
-0.4139898
0.7627146
0.4618158
0.901911
0.4980738
-0.9359499
0.2474363
-0.464223
0.1308378
0.7604591
-0.3802852
0.5357916
-0.3274199
0.8379371
0.2302331
-0.1517254
0.6058089
0.3337075
-0.8670281
0.4381335
-0.3484494
0.6050307
0.2238646
0.7999216
-0.6331522
-0.7790052
-1.173974
0.6072124
-0.4553032
0.2366321
1.299306
-1.128337
-0.7798161
-0.8038128
-1.167101
0.9206711
-0.3823923
-0.4710982
0.843785
0.2690775
-0.1716832
0.4149029
0.7460235
-0.4866562
-0.5591126
-0.3186804
1.113176
0.673868
-0.4531551
0.03498244
-0.203384
-0.5904331
-0.793011
0.04941086
0.08035801
-0.4189726
1.264137
-1.394846
0.1423184
-1.788035
-1.296219
1.512344
0.6567703
0.5466791
0.9044642
0.07407956
-1.267335
0.1866282
-1.190228
0.07414117
0.5901355
-1.110224
-0.9966215
-0.5027214
-1.49533
0.9666678
1.227028
-0.09488491
0.7971246
-1.48344
0.07358847
0.02672343
1.45574
1.376117
-0.1857817
-0.03672278
-1.162163
0.8850126
-0.9182131
0.4741417
1.250083
-0.1274664
0.3263566
-0.6862526
-1.20935
0.988945
-1.493491
0.6372193
-0.8089883
0.547932
0.2742708
0.5965587
-1.350857
0.5758513
-0.7895592
0.6944517
0.766472
-0.4760433
0.9736556
-1.656368
-0.1249792
1.444031
1.032668
1.284245
1.088916
-0.7098357
1.67125
-0.02479997
1.132241
-0.7888979
-0.9461123
1.847147
0.5846551
0.6962877
1.57004
-1.170354
0.06324002
-1.58327
0.4189412
-0.2664067
-1.053092
0.5087547
0.7142896
0.7900825
0.4505847
-0.7143585
0.3518978
-1.390726
0.3465483
-0.003654848
-1.314122
0.9929206
0.01604325
-0.07952654
-0.2491381
-0.5875644
-1.085514
1.273302
-0.8725707
-0.0001397863
0.3958722
-0.09306907
-0.4199176
-1.693335
-0.04244713
0.9574626
-0.595865
0.7543395
-0.2879677
0.8298287
-0.2742152
0.8919871
-0.6061212
0.4178684
0.1759612
-0.3167048
0.08495805
-0.877861
0.2730745
-1.037966
-0.7335267
-0.7026777
0.1490276
0.2606494
1.165491
-0.7293225
0.2339157
0.5455211
-0.07865537
0.3062283
-1.009183
0.6192572
-0.6301785
-0.8077708
-0.3298582
-0.941506
0.7176802
0.2769117
0.1911451
0.1396736
-0.6092427
0.1813543
0.04042194
-0.8610621
0.75545
0.05978567
-0.5514269
0.937494
-0.4935725
0.6441551
0.2866299
0.4582323
-0.3363141
1.068033
-0.02320133
0.01481167
0.8456014
-0.5122023
0.550576
1.293278
-0.5465765
0.05269739
-0.300878
0.1752147
-0.3201567
0.09212244
0.3357146
-0.5894265
-0.4409608
1.19456
0.1371991
0.2111212
-1.189122
-0.1528535
-1.125272
0.1447537
